{"inputs":21,"hidden":32,"outputs":4,"weights_h":{"rows":32,"cols":21,"matrix":[[0.7533626961373225,0.9260527257642228,0.5148265217504344,0.3344825314579155,-0.08294911313979739,-0.8932828913510156,0.7761801842393002,0.49913916822658416,-0.22683492440522549,-0.45942923467520047,-0.9230852067510112,0.09916183450028329,0.7925441601330407,0.8446774337084755,0.566491678333402,0.21700950924582288,1.1213287812184543,-0.8277159180999774,0.5813507093920542,0.3641735587163388,0.011631766900052631],[-0.816639546523171,-0.47816101948784384,1.1107975022671064,-0.03911387345922915,0.5653331256824436,0.841270820415938,-0.2773273132701732,-0.6627006094439818,0.6327133008910114,1.0224381302991885,-0.4755658770163219,0.373989502180082,0.8958553993945639,0.21600134439566626,0.5558845371229002,0.960725061655447,0.42352170949921597,0.827012943857617,-0.42098052300054045,-0.2487858744646849,-0.9324156159070849],[-0.16344169319035856,-0.6693282333225988,-0.22242183414127026,-0.3209206191387314,0.7921124284234209,-0.5235431168903664,0.6183433102798164,0.029161719632293887,-0.9059438916368483,-1.0404955535702969,0.813826442587809,0.35919019961416787,0.46673263001082876,-0.67816386010452,-0.12191912079994194,-0.42271674888278576,0.18833645282329886,-0.6719118413681877,-0.5546874981913571,0.1726558484837746,-0.834360422954347],[0.8647392486849359,0.0632829383966853,-0.5568274777477347,-0.48285303135202484,-0.46160047156744827,-0.38650414323883225,-0.2844271534129086,-0.6625209855031182,0.46377696941950874,-0.10313978269490562,0.6693489084729697,0.904934013729624,0.9989027406521735,-0.5559125409726029,-0.2929031103301891,0.6539884392632843,0.0661524810405491,0.13700985102153815,-0.07623282708835039,-1.318344603666745,0.9607282840216731],[-0.8877035796263941,0.5453590919412836,-0.20979492075394543,0.1105274882703151,-0.2409196918889844,0.3827757749025282,-0.5147019445315597,-0.5914685712834552,0.343057114191074,-0.3740110103126566,-0.20969868500596103,0.2218634247113944,-0.9650777222059722,0.24102020604169663,-0.6149028256295617,0.4087223732165417,-0.81911665209103,-0.8937798626253393,-0.23040348634433522,-0.8292131563966646,-0.24563266564647682],[-0.5815171260344292,-0.7642646331306432,-0.7940513286554518,0.5079362776213474,0.05420194194761743,0.2396572327628384,-0.828011498615595,-0.4132002203577037,0.8236099142079643,1.086304046042207,-0.9429966272163787,-0.9295993566368966,-0.5867651509710781,0.21347259576141492,0.45494907703160353,-0.4803929330101512,0.11657534341591225,0.3869636378716258,0.24930185373525232,-0.10549378719093655,-0.46777402533760754],[0.652505513324337,0.4336205273845618,-0.6940976961080341,-0.22747286110304493,0.4213281117203589,-0.2763612977250838,-0.15605338076812234,-0.914565831058513,-0.3450724483358999,0.8282044250838712,-0.7100728194606553,0.15973632595856072,0.36182659143113655,-0.15335390940007387,0.2961053097395462,0.31436346134687637,-0.5693676567544168,0.3684579551227593,-0.5468974111770526,0.9077321060013457,-0.0028443174759753276],[0.647840330454939,0.9293424022576979,0.542169306206057,-0.32396711338982337,0.3789473063403031,0.565432240943121,-0.28579002477641546,0.34282289877967065,0.23216630959391946,-1.053736455988291,0.20323424143839697,-0.2515993647225896,0.4835151158294397,1.0597506510909134,0.2727486613254999,-1.0411023236191401,0.14270021159558605,0.5882386780700827,-0.6800278725026296,-0.16537827794091647,0.6252670764751269],[0.17492068597306518,-0.4376141310769669,0.6534254374982544,-0.23104119741623816,-1.0370576663663063,0.6220036125717315,-1.0318040225471414,0.6363439818747869,1.034997967979794,-0.7433931142976997,-0.3819774094235376,1.0612970683523908,0.01886212282078878,-0.7631355186033153,-0.9366706695556353,0.9236991446660662,-0.6906953468739527,0.9038725820938098,-0.31050930432790325,0.2626862801164798,-0.005699798298479164],[-1.024124379468496,-0.5019270367799565,-0.34278295853054497,-0.006222497834095286,0.789666911890778,-0.7339072000311297,-0.1929948422419383,0.505649042196144,-0.266051546012538,-0.11555935053618213,0.07140584248876192,-0.1207373395034762,0.7149470038906366,-0.4803524272008101,-0.46927076951692803,-0.7602666392946417,0.6747380440349061,0.11376725053359382,0.2612617855779406,0.6720916943476725,-0.4693436406980064],[-0.07490008600303832,0.3606029408481828,-0.7231867300465575,0.23112029594667083,-0.4569844218412442,-0.23210995802145085,-0.7012137957183511,0.5538039718411807,0.6578212025569184,0.3151332337456315,-0.14654828725449107,0.6958747907096019,0.2863609265281481,0.966308007989707,0.047098318586058535,0.1214901090811428,-1.0366026817086984,-0.90149990932009,0.7494115483333326,-0.4184561882512712,0.13263842929297034],[0.5263489368072733,0.6098213398177752,-0.4596477667952392,0.8876711997482278,0.5336831938406312,0.8176698067353768,0.6760422006567343,-0.9707298387310855,0.271905148983343,0.42173232904979535,0.5869310819816183,-0.5772715187861097,0.26005874416709274,0.5852387408543781,-1.0463138142940462,-0.916194439422765,-0.36631388486840477,-0.005735873125339894,0.8613158665247036,0.09073771085817897,0.21413086681558421],[0.21723424333969446,-0.5577995311426499,0.7321885327330485,-0.4113155733444196,-0.16806279155846823,0.16476561418237068,0.46440198160882196,-0.2668959966463217,-0.10940009111954395,-0.1892949559386496,0.8686007339544057,0.05745521831249023,-1.2000027102444424,0.488772430308382,-0.8273862290107308,-0.6462392571728417,0.4392766942271186,-0.20726485999904176,0.26375043593905495,0.3672115462715568,0.01729693971797433],[-0.30869992073465946,0.5779689958136911,-0.5381381576851629,-0.10691848015475647,-0.14011732564310056,1.1146693817066273,-0.1315158770904103,0.7465543207577966,0.19927221731323258,-0.5956915252259335,0.40208592024126955,-0.4558468617784086,0.4408595131149996,0.8433885552276615,-0.5052634166882958,-0.9298775709630922,-0.23084017046279345,-0.45639498605704504,-0.07872299124440357,0.534137528982846,-0.6669901148179538],[-0.322390748830632,-0.2827712599628594,0.3873517431220995,-0.8450364860632816,0.20202357514567332,-0.9908278977942789,0.1352027811231499,-0.0801359332747214,0.12080606434099894,-0.5568141849695715,-0.9004390759669523,-0.30873063142208257,-0.27330269145333597,0.09386345913761804,-0.3181518168406219,0.061365260424388085,-0.39729594059152057,-0.6656082964692484,0.7781771064652686,0.6827298402490521,0.5836449203720615],[-0.25662095800649287,-0.7954419508819368,-0.6701344207905202,0.1627737524547393,0.9415963653617303,0.8272845657357083,0.4064761822574229,-0.5942783163132915,0.22956632533654123,-0.3771229863450446,-0.02928622120399832,-1.062137826606844,-0.7395580725543108,-0.953983945601707,0.01603388238607706,1.0033276540918363,-0.33689558253122664,-0.9536249510842685,0.15484879500710147,-0.1715652894849378,-0.8225579401170655],[0.9889511962656264,-0.718758810100492,-1.0238986500570921,-0.017070537165977673,0.09306852838165275,0.06193774807478716,-0.6013834918518937,-0.47068480854509703,-0.5474178082979229,0.568673386806001,-0.8688711259475201,-0.8561242194906356,0.5004422558015177,0.3516326040521663,0.06286309739870302,0.6349405573116191,-0.8496106510901448,0.2393701916347879,0.5614097926029026,-0.7993199059920909,-0.7631984758007504],[0.27043624706351,-0.16708002260044622,0.9836211394941158,0.48185228643918876,0.13125179814052293,0.32749755993151486,-0.21539714351796727,-0.7480493056436661,-0.18939235606013272,0.860184470284302,-0.10845985300649161,1.1712366889124404,0.28148453381095295,-0.09016311205932545,0.5263393504710439,0.6616991821919875,0.8691019663496434,0.6616282962358018,-0.8441370875641002,-0.010499149386249684,0.7991613895332488],[-0.10001522989848699,-0.05960069324797321,-1.0000615032901945,0.5935577074222506,0.3736811631991894,0.847755086619517,0.05267697830771528,0.21551321798250397,-0.8662693593168315,-0.42626056090436437,-0.8202482136563459,0.6280203971407794,0.18308845142947375,0.2916371995946786,0.8993247156222628,-0.4022228078457336,0.723861713297371,0.7901524487935223,0.45389817177710484,0.804407599257486,0.453985402388826],[0.034764338373150905,0.9001769391043186,0.27624885513245745,-0.15802455195658924,0.8623231149896624,0.0186535994743256,0.7859880839938431,-0.33236667874930925,-0.18923635181134826,0.12534304272023028,-0.42253174716048436,-0.5911318214622399,-0.1073663189609759,-0.2815694880227837,-0.5928760923103208,-0.3481174849379049,-0.9454822862401506,0.00915174228168536,-0.5046972177749893,0.6127782137823277,0.0837549973439208],[0.5318417982113313,-0.7999977257890231,-0.6677837030479694,-0.9250879413678027,-0.10742421370333477,-0.4881785342550969,-0.8328710513038495,-0.5757324378557049,-1.0913744818139541,-1.0995732727184022,0.8875415865631862,-1.0252247467557196,0.563755735833132,-0.6173969708003746,-1.1950348645536621,0.42638185325133177,-0.03375056539139945,-0.4664943526693392,-1.072997567693818,-0.8376546529276157,-0.15685770982025263],[-0.41450478723420425,-0.5483332801750879,-1.094745730086717,-0.7574221603685205,-0.2755862001787406,0.8189264927545394,-0.8936185801819911,-0.5560642657422239,-0.83053043154673,0.10844082212072206,0.8163673812589548,0.8934852784133158,0.8982502668338099,-1.1128684866158727,-0.5862048605998986,0.06963529383294026,0.5365741832718818,-0.8383438796794396,0.7607675494326411,0.13451083971493516,0.034155718753232964],[0.1617868998948473,-1.069448002195856,0.9070552128148586,-0.698099912255193,0.40411453678286097,0.721574220644109,0.4492261827859508,-0.7752178178392182,-0.2520071695072106,0.2848782803136413,-0.5660062943711588,-0.9624792102034553,-0.6570958980923629,0.9709459697685827,0.629856278572174,0.405319980830702,0.20025646379516976,-0.08913400045583596,-0.6783637059701959,0.1001221991872607,0.6507888534710297],[-0.23271422427573668,-0.5554848059639271,0.05219057049449219,0.23885650032196143,0.6263148418374345,0.8051689050210473,-0.8126421716544043,0.36430305313627487,-0.17896126270244975,0.3709868386168359,0.40255564261330756,0.8676326844100026,1.1202625386802059,0.010618767583940841,-0.053705117815388254,-0.16450078651256314,0.3686024548690998,0.09398143868749434,-0.3854921085054706,-0.932395721984012,-0.5430107413420524],[0.2485044312293335,-0.8471756229568557,0.8296760977801468,0.12104146680330616,-0.016272043192613883,0.455119408976401,-0.8232650273424367,-0.5210693402167696,-0.18433777603257215,-0.6772499577359153,0.03996316317067705,-1.043224849257587,-0.29354117118535955,-0.5052121400188352,0.8415520588361188,0.5688159254686578,0.5071123684716021,0.8824406214609586,0.42677472932800853,0.8125728175506627,0.07381465622904856],[-0.23431266917454496,-0.6032339244805416,-0.3443016060808183,0.2264572200750557,-0.09409259648300278,0.8807378533957734,0.37183963636056083,-0.9191054967123478,-0.6821799943456183,0.4315645954130539,0.7313949674731604,-0.5748280931982704,-0.8429748176448403,-0.2094049254314421,0.38413982347891873,-0.3600483717031611,-0.352812762597568,-0.20297743980410304,0.19720025013178846,-0.42888975798373785,-0.994735913543951],[0.4383165269735631,0.47618440519175464,0.948070644041767,0.08961192269707033,0.12086861037365684,-0.09171327818926128,0.8448155522665017,-1.0193276545833023,-0.3081397410348084,-0.11513822342758429,-0.958485863891626,-0.34848953184479603,0.4969702464499064,0.9984420075413885,-0.6161578843293092,-0.10511031641479654,-0.9686767622850188,0.5335552587695478,0.253884839813873,0.21130235769655697,0.8238744770635913],[0.8238377312086251,-0.5473751740145837,0.38620417943022783,1.024833263905111,0.8367384300206906,-0.7112123546576146,0.021879676390881397,-0.00046198127383256793,0.17304256097141338,-0.6757195041952708,0.24356486038669117,-0.6625888293283062,-0.7683508538909424,1.008090389451887,0.09508466717536576,0.5391661299846289,1.1105743417850307,-0.43661436242569696,-0.1838707910146862,0.1337389209539826,-1.172353025311129],[0.9129382083490536,1.0312375591338798,0.79671112083049,-0.846994613346034,0.7765619764930339,-0.979316006084843,0.5239779173661634,0.3503666073705983,-0.27010186876351816,0.14391278155777515,0.09118237913471025,0.5273618093438208,1.0636392252179725,0.2556344090615058,0.8553156045889263,-0.15605606275397083,-0.043469653151277876,0.052952063283533524,0.9264879685856267,0.5772972766504036,0.5887699767925298],[0.3518792027100586,-0.07268658156764152,0.553322034301422,0.5654859140053444,-0.5784646936714939,-0.1587177975848123,0.7427655019814362,0.06805184143602663,0.43588001835312323,0.698060253395945,-0.6488152557534069,-0.8169368719592174,0.41608952277561884,-0.1908554829165015,0.7199424875254894,-0.29544541398418944,0.6342963827567452,-0.6975085025515437,0.9297068216195673,-0.5261277708804983,-0.39467867285986025],[-0.7519824172502289,0.7522986136932254,-0.5546976819293015,0.2195893168178793,-0.43321407886662666,-0.20240493336177584,0.29002850100301186,-0.8569505712292574,-0.9213926221502438,0.6910564959359695,0.4951619107997983,0.9039815292746172,-0.5102743387884809,-0.7288678327858804,0.023770459072425254,0.19887884076303952,0.9717635325986484,0.11646936711778011,-0.9501218136428047,-0.5453273999552254,-0.2925163457818232],[0.3012184766861341,0.4224818392291547,0.6474786937437819,0.5483929424172825,0.015840122497504744,-0.23460577421705903,-0.8666044940640898,-0.574936685339088,0.6852223240808255,-0.5425116970068543,0.3456219956009745,0.7520983728524427,-1.0434474810549796,0.39502559707252033,-0.8618176318814933,-0.8161934372724035,0.9213605609675075,-0.4723645660855039,0.6607801461492858,0.6132297591632807,-1.0041143100533427]]},"weights_o":{"rows":4,"cols":32,"matrix":[[-0.0397459627232479,-0.28061329270158697,-0.36228725196355976,0.781893282870197,-0.8666419413949621,0.6916389753905614,0.4134893874294586,0.2836289654824191,0.27957383446134104,-0.7124131334417882,0.6459562254213185,-1.0168460457431758,-0.28397741816809574,-0.9518342806465766,0.5597980139898711,0.25937834846797314,0.13829580322733215,-0.11109637401130387,-0.1137802028747372,0.5587887937635985,-0.7588079547779013,-0.47504030095004823,-0.3978195695049822,0.10230249998462995,0.7659560175209142,0.3309282294564018,-0.033788943887902934,0.3319646777495287,-0.9246965855301663,0.03768189414930753,-0.8077391448949311,-0.1309827721533182],[0.8305373287642686,-0.6250984596347178,0.21382872065302405,0.757793977077005,0.49579032236302734,-0.2973631606182448,-0.5692211455093449,-0.44982049857478723,0.6717827607670707,-0.22578247227818427,0.608708658996,-0.9902749382374774,0.668267923582876,0.26945151263972766,-1.169247372606998,0.37133976849853817,-0.6259310583679027,-0.07046174292382187,-0.7326913091480705,1.0770408328500014,-0.3021910871250959,-0.3864701434153801,0.2778133660858313,-0.17697301821537428,-0.010172971478316306,-0.22558835401788224,0.13877920404021357,0.38667884475937736,-0.29978466404390314,-0.5378932525933956,0.0344874037983188,0.3835516391091354],[-0.6929381512716959,0.55615235090482,-1.0486487089935146,0.1538274452776352,-0.4791591760551615,-0.9545498099103558,0.7296226797123936,-0.0955926430952932,0.41856896171374325,0.11028674309824021,0.3846039503554981,0.8182525363619836,0.9192265169346047,-1.0117505748205329,-0.6624724026421394,0.3393691313557255,0.1629951278925866,-0.663709774948112,0.5343160406023971,0.6122327855127883,-0.01576949286878218,-0.8202566638796311,-0.23802930123494814,-0.25594805817098665,0.7185039369210959,-0.3440540993235614,0.7878409688419629,-0.7909272524225626,-0.18663508250237884,0.4867520758059404,-0.7651279899388052,-0.27572250040358187],[0.8847660280675632,0.11948330269426949,-0.136952444814824,0.23573559957275975,0.7983197920650428,0.9674725376608497,-0.0017467746152338287,0.12631907866617806,-0.42929415536030474,0.6211613205752463,0.4305788607565717,0.18120388781228502,-1.0968517686846189,-0.728427271662148,-0.5928848401261286,0.07510067892754382,0.9084754361801206,1.0508936114586545,0.7616403413514093,0.3146566996384901,0.015025619271830715,-0.575696900713156,0.23498001674710844,0.1487454029023045,0.7263083334443419,0.7622055335944227,-0.6542419153031441,0.22919052966995848,-0.6916630437574318,-0.06147323459893578,0.981189357139838,-0.40321590206061914]]},"bias_h":{"rows":32,"cols":1,"matrix":[[0.8112422156241897],[0.05096646035378877],[0.6858959301930558],[-0.7647770858639018],[-0.655554991472122],[-1.0985210656817508],[-0.6522660182997716],[-0.5518834676901517],[-0.3837940226404973],[0.31278890746541255],[-0.24425679115870344],[0.5314938451097683],[0.05509658396523601],[-0.832675085819854],[0.9609531999110166],[0.32062934254506936],[0.7004926457710003],[0.19129059225132558],[0.4378318631995606],[-0.24092517275901293],[-1.1951320199473316],[0.30681647505325843],[-0.19213119466806625],[0.7532373960846541],[0.06403278343768312],[0.24157004010932231],[-0.6562614150062072],[0.33299655353342816],[-0.36572139924156666],[-0.5239141093725644],[-0.5977834875937481],[0.6242769556040848]]},"bias_o":{"rows":4,"cols":1,"matrix":[[0.27565769183600924],[0.412628433799277],[0.5800184250185625],[0.19155390691724639]]},"learningRate":0.2,"activationFunction":{}}